net
{
     node_size = (0 0);
     name = "New BN";
     tree = "(C1,C2,C3,C4,C5,C6)";
     UnBBayes_Color_Probabilistic_Description = "-256";
     UnBBayes_Color_Probabilistic_Explanation = "-16711936";
}

node bribery
{
     label = "C1";
     position = (52 47);
     states = ("yes" "no");
}

node update
{
     label = "C2";
     position = (106 51);
     states = ("yes" "no");
}

node app_download
{
     label = "C3";
     position = (175 54);
     states = ("yes" "no");
}

node suspicious_conversasion_email
{
     label = "C4";
     position = (244 54);
     states = ("yes" "no");
}

node pretexting_via_customer_service
{
     label = "C6";
     position = (193 285);
     states = ("yes" "no");
}

node dns_domain_seizure
{
     label = "C1";
     position = (259 284);
     states = ("yes" "no");
}

node influence_via_incentives
{
     label = "C2";
     position = (321 286);
     states = ("yes" "no");
}

node harvesting_information_via_api_event_monitoring
{
     label = "C3";
     position = (384 288);
     states = ("yes" "no");
}

node pretexting_via_tech_support
{
     label = "C4";
     position = (448 291);
     states = ("yes" "no");
}

node pretexting_via_delivery_person
{
     label = "C5";
     position = (523 291);
     states = ("yes" "no");
}

node pretexting_via_phone
{
     label = "C6";
     position = (592 289);
     states = ("yes" "no");
}

node influence_perception_of_reciprocation
{
     label = "C7";
     position = (655 288);
     states = ("yes" "no");
}

node influence_perception_of_scarcity
{
     label = "C8";
     position = (713 292);
     states = ("yes" "no");
}

node influence_perception_of_authority
{
     label = "C9";
     position = (773 293);
     states = ("yes" "no");
}

node influence_perception_of_liking
{
     label = "C10";
     position = (842 297);
     states = ("yes" "no");
}

node influence_perception_of_concensus_or_social_proof
{
     label = "C11";
     position = (911 295);
     states = ("yes" "no");
}

node target_influence_via_framing
{
     label = "C12";
     position = (979 292);
     states = ("yes" "no");
}

node influence_via_modes_of_thinking
{
     label = "C13";
     position = (1049 291);
     states = ("yes" "no");
}

node target_influence_via_interview_and_interrogation
{
     label = "C14";
     position = (1117 289);
     states = ("yes" "no");
}

node suspicious_conversasion_phone_call
{
     label = "C15";
     position = (306 55);
     states = ("yes" "no");
}

node suspicious_conversasion_phone_message
{
     label = "C16";
     position = (380 53);
     states = ("yes" "no");
}

node ad_click
{
     label = "C17";
     position = (444 53);
     states = ("yes" "no");
}

node pop_up_windows
{
     label = "C18";
     position = (518 57);
     states = ("yes" "no");
}

node credentials_theft
{
     label = "C19";
     position = (586 54);
     states = ("yes" "no");
}

node credentials_re_entering
{
     label = "C20";
     position = (653 54);
     states = ("yes" "no");
}

node services_fail
{
     label = "C21";
     position = (716 54);
     states = ("yes" "no");
}

node suspicious_code_modifications
{
     label = "C22";
     position = (794 56);
     states = ("yes" "no");
}

node suspicious_conversation_visit
{
     label = "C23";
     position = (853 57);
     states = ("yes" "no");
}

node suspicious_link
{
     label = "C24";
     position = (922 57);
     states = ("yes" "no");
}

node frequent_spams
{
     label = "C29";
     position = (0 48);
     states = ("yes" "no");
}

potential (bribery)
{
 data = ( 0.5 0.5 );
}

potential (update)
{
 data = ( 0.5 0.5 );
}

potential (app_download)
{
 data = ( 0.5 0.5 );
}

potential (suspicious_conversasion_email)
{
 data = ( 0.5 0.5 );
}

potential (pretexting_via_customer_service | credentials_theft pop_up_windows ad_click suspicious_conversasion_email suspicious_conversasion_phone_message suspicious_conversasion_phone_call)
{
 data = ((((((( 0.5625 0.4375 )
( 0.5625 0.4375 ))
(( 0.5625 0.4375 )
( 0.5625 0.4375 )))
((( 0.5625 0.4375 )
( 0.5625 0.4375 ))
(( 0.5625 0.4375 )
( 0.5625 0.4375 ))))
(((( 0.5625 0.4375 )
( 0.5625 0.4375 ))
(( 0.5625 0.4375 )
( 0.5625 0.4375 )))
((( 0.5625 0.4375 )
( 0.5625 0.4375 ))
(( 0.5625 0.4375 )
( 0.5625 0.4375 )))))
((((( 0.5625 0.4375 )
( 0.5625 0.4375 ))
(( 0.5625 0.4375 )
( 0.5625 0.4375 )))
((( 0.5625 0.4375 )
( 0.5625 0.4375 ))
(( 0.5625 0.4375 )
( 0.5625 0.4375 ))))
(((( 0.5625 0.4375 )
( 0.5625 0.4375 ))
(( 0.5625 0.4375 )
( 0.5625 0.4375 )))
((( 0.5625 0.4375 )
( 0.5625 0.4375 ))
(( 0.5625 0.4375 )
( 0.5625 0.4375 ))))))
(((((( 0.5625 0.4375 )
( 0.5625 0.4375 ))
(( 0.5625 0.4375 )
( 0.5625 0.4375 )))
((( 0.5625 0.4375 )
( 0.5625 0.4375 ))
(( 0.5625 0.4375 )
( 0.5625 0.4375 ))))
(((( 0.5625 0.4375 )
( 0.5625 0.4375 ))
(( 0.5625 0.4375 )
( 0.5625 0.4375 )))
((( 0.5625 0.4375 )
( 0.5625 0.4375 ))
(( 0.5625 0.4375 )
( 0.5625 0.4375 )))))
((((( 0.5625 0.4375 )
( 0.5625 0.4375 ))
(( 0.5625 0.4375 )
( 0.5625 0.4375 )))
((( 0.5625 0.4375 )
( 0.5625 0.4375 ))
(( 0.5625 0.4375 )
( 0.5625 0.4375 ))))
(((( 0.5625 0.4375 )
( 0.5625 0.4375 ))
(( 0.5625 0.4375 )
( 0.5625 0.4375 )))
((( 0.5625 0.4375 )
( 0.5625 0.4375 ))
(( 0.5625 0.4375 )
( 0.5625 0.4375 )))))));
}

potential (dns_domain_seizure | credentials_theft credentials_re_entering suspicious_code_modifications services_fail)
{
 data = ((((( 0.5 0.5 )
( 0.5 0.5 ))
(( 0.5 0.5 )
( 0.5 0.5 )))
((( 0.5 0.5 )
( 0.5 0.5 ))
(( 0.5 0.5 )
( 0.5 0.5 ))))
(((( 0.5 0.5 )
( 0.5 0.5 ))
(( 0.5 0.5 )
( 0.5 0.5 )))
((( 0.5 0.5 )
( 0.5 0.5 ))
(( 0.5 0.5 )
( 0.5 0.5 )))));
}

potential (influence_via_incentives | bribery credentials_theft suspicious_link suspicious_conversation_visit suspicious_conversasion_email suspicious_conversasion_phone_message suspicious_conversasion_phone_call)
{
 data = (((((((( 0.5 0.5 )
( 0.5 0.5 ))
(( 0.5 0.5 )
( 0.5 0.5 )))
((( 0.5 0.5 )
( 0.5 0.5 ))
(( 0.5 0.5 )
( 0.5 0.5 ))))
(((( 0.5 0.5 )
( 0.5 0.5 ))
(( 0.5 0.5 )
( 0.5 0.5 )))
((( 0.5 0.5 )
( 0.5 0.5 ))
(( 0.5 0.5 )
( 0.5 0.5 )))))
((((( 0.5 0.5 )
( 0.5 0.5 ))
(( 0.5 0.5 )
( 0.5 0.5 )))
((( 0.5 0.5 )
( 0.5 0.5 ))
(( 0.5 0.5 )
( 0.5 0.5 ))))
(((( 0.5 0.5 )
( 0.5 0.5 ))
(( 0.5 0.5 )
( 0.5 0.5 )))
((( 0.5 0.5 )
( 0.5 0.5 ))
(( 0.5 0.5 )
( 0.5 0.5 ))))))
(((((( 0.5 0.5 )
( 0.5 0.5 ))
(( 0.5 0.5 )
( 0.5 0.5 )))
((( 0.5 0.5 )
( 0.5 0.5 ))
(( 0.5 0.5 )
( 0.5 0.5 ))))
(((( 0.5 0.5 )
( 0.5 0.5 ))
(( 0.5 0.5 )
( 0.5 0.5 )))
((( 0.5 0.5 )
( 0.5 0.5 ))
(( 0.5 0.5 )
( 0.5 0.5 )))))
((((( 0.5 0.5 )
( 0.5 0.5 ))
(( 0.5 0.5 )
( 0.5 0.5 )))
((( 0.5 0.5 )
( 0.5 0.5 ))
(( 0.5 0.5 )
( 0.5 0.5 ))))
(((( 0.5 0.5 )
( 0.5 0.5 ))
(( 0.5 0.5 )
( 0.5 0.5 )))
((( 0.5 0.5 )
( 0.5 0.5 ))
(( 0.5 0.5 )
( 0.5 0.5 )))))))
((((((( 0.5 0.5 )
( 0.5 0.5 ))
(( 0.5 0.5 )
( 0.5 0.5 )))
((( 0.5 0.5 )
( 0.5 0.5 ))
(( 0.5 0.5 )
( 0.5 0.5 ))))
(((( 0.5 0.5 )
( 0.5 0.5 ))
(( 0.5 0.5 )
( 0.5 0.5 )))
((( 0.5 0.5 )
( 0.5 0.5 ))
(( 0.5 0.5 )
( 0.5 0.5 )))))
((((( 0.5 0.5 )
( 0.5 0.5 ))
(( 0.5 0.5 )
( 0.5 0.5 )))
((( 0.5 0.5 )
( 0.5 0.5 ))
(( 0.5 0.5 )
( 0.5 0.5 ))))
(((( 0.5 0.5 )
( 0.5 0.5 ))
(( 0.5 0.5 )
( 0.5 0.5 )))
((( 0.5 0.5 )
( 0.5 0.5 ))
(( 0.5 0.5 )
( 0.5 0.5 ))))))
(((((( 0.5 0.5 )
( 0.5 0.5 ))
(( 0.5 0.5 )
( 0.5 0.5 )))
((( 0.5 0.5 )
( 0.5 0.5 ))
(( 0.5 0.5 )
( 0.5 0.5 ))))
(((( 0.5 0.5 )
( 0.5 0.5 ))
(( 0.5 0.5 )
( 0.5 0.5 )))
((( 0.5 0.5 )
( 0.5 0.5 ))
(( 0.5 0.5 )
( 0.5 0.5 )))))
((((( 0.5 0.5 )
( 0.5 0.5 ))
(( 0.5 0.5 )
( 0.5 0.5 )))
((( 0.5 0.5 )
( 0.5 0.5 ))
(( 0.5 0.5 )
( 0.5 0.5 ))))
(((( 0.5 0.5 )
( 0.5 0.5 ))
(( 0.5 0.5 )
( 0.5 0.5 )))
((( 0.5 0.5 )
( 0.5 0.5 ))
(( 0.5 0.5 )
( 0.5 0.5 ))))))));
}

potential (harvesting_information_via_api_event_monitoring | frequent_spams credentials_theft credentials_re_entering app_download suspicious_conversation_visit suspicious_conversasion_phone_message suspicious_conversasion_phone_call)
{
 data = (((((((( 0.5 0.5 )
( 0.5 0.5 ))
(( 0.5 0.5 )
( 0.5 0.5 )))
((( 0.5 0.5 )
( 0.5 0.5 ))
(( 0.5 0.5 )
( 0.5 0.5 ))))
(((( 0.5 0.5 )
( 0.5 0.5 ))
(( 0.5 0.5 )
( 0.5 0.5 )))
((( 0.5 0.5 )
( 0.5 0.5 ))
(( 0.5 0.5 )
( 0.5 0.5 )))))
((((( 0.5 0.5 )
( 0.5 0.5 ))
(( 0.5 0.5 )
( 0.5 0.5 )))
((( 0.5 0.5 )
( 0.5 0.5 ))
(( 0.5 0.5 )
( 0.5 0.5 ))))
(((( 0.5 0.5 )
( 0.5 0.5 ))
(( 0.5 0.5 )
( 0.5 0.5 )))
((( 0.5 0.5 )
( 0.5 0.5 ))
(( 0.5 0.5 )
( 0.5 0.5 ))))))
(((((( 0.5 0.5 )
( 0.5 0.5 ))
(( 0.5 0.5 )
( 0.5 0.5 )))
((( 0.5 0.5 )
( 0.5 0.5 ))
(( 0.5 0.5 )
( 0.5 0.5 ))))
(((( 0.5 0.5 )
( 0.5 0.5 ))
(( 0.5 0.5 )
( 0.5 0.5 )))
((( 0.5 0.5 )
( 0.5 0.5 ))
(( 0.5 0.5 )
( 0.5 0.5 )))))
((((( 0.5 0.5 )
( 0.5 0.5 ))
(( 0.5 0.5 )
( 0.5 0.5 )))
((( 0.5 0.5 )
( 0.5 0.5 ))
(( 0.5 0.5 )
( 0.5 0.5 ))))
(((( 0.5 0.5 )
( 0.5 0.5 ))
(( 0.5 0.5 )
( 0.5 0.5 )))
((( 0.5 0.5 )
( 0.5 0.5 ))
(( 0.5 0.5 )
( 0.5 0.5 )))))))
((((((( 0.5 0.5 )
( 0.5 0.5 ))
(( 0.5 0.5 )
( 0.5 0.5 )))
((( 0.5 0.5 )
( 0.5 0.5 ))
(( 0.5 0.5 )
( 0.5 0.5 ))))
(((( 0.5 0.5 )
( 0.5 0.5 ))
(( 0.5 0.5 )
( 0.5 0.5 )))
((( 0.5 0.5 )
( 0.5 0.5 ))
(( 0.5 0.5 )
( 0.5 0.5 )))))
((((( 0.5 0.5 )
( 0.5 0.5 ))
(( 0.5 0.5 )
( 0.5 0.5 )))
((( 0.5 0.5 )
( 0.5 0.5 ))
(( 0.5 0.5 )
( 0.5 0.5 ))))
(((( 0.5 0.5 )
( 0.5 0.5 ))
(( 0.5 0.5 )
( 0.5 0.5 )))
((( 0.5 0.5 )
( 0.5 0.5 ))
(( 0.5 0.5 )
( 0.5 0.5 ))))))
(((((( 0.5 0.5 )
( 0.5 0.5 ))
(( 0.5 0.5 )
( 0.5 0.5 )))
((( 0.5 0.5 )
( 0.5 0.5 ))
(( 0.5 0.5 )
( 0.5 0.5 ))))
(((( 0.5 0.5 )
( 0.5 0.5 ))
(( 0.5 0.5 )
( 0.5 0.5 )))
((( 0.5 0.5 )
( 0.5 0.5 ))
(( 0.5 0.5 )
( 0.5 0.5 )))))
((((( 0.5 0.5 )
( 0.5 0.5 ))
(( 0.5 0.5 )
( 0.5 0.5 )))
((( 0.5 0.5 )
( 0.5 0.5 ))
(( 0.5 0.5 )
( 0.5 0.5 ))))
(((( 0.5 0.5 )
( 0.5 0.5 ))
(( 0.5 0.5 )
( 0.5 0.5 )))
((( 0.5 0.5 )
( 0.5 0.5 ))
(( 0.5 0.5 )
( 0.5 0.5 ))))))));
}

potential (pretexting_via_tech_support | credentials_theft pop_up_windows suspicious_conversation_visit suspicious_conversasion_email suspicious_conversasion_phone_message suspicious_conversasion_phone_call)
{
 data = ((((((( 0.5 0.5 )
( 0.5 0.5 ))
(( 0.5 0.5 )
( 0.5 0.5 )))
((( 0.5 0.5 )
( 0.5 0.5 ))
(( 0.5 0.5 )
( 0.5 0.5 ))))
(((( 0.5 0.5 )
( 0.5 0.5 ))
(( 0.5 0.5 )
( 0.5 0.5 )))
((( 0.5 0.5 )
( 0.5 0.5 ))
(( 0.5 0.5 )
( 0.5 0.5 )))))
((((( 0.5 0.5 )
( 0.5 0.5 ))
(( 0.5 0.5 )
( 0.5 0.5 )))
((( 0.5 0.5 )
( 0.5 0.5 ))
(( 0.5 0.5 )
( 0.5 0.5 ))))
(((( 0.5 0.5 )
( 0.5 0.5 ))
(( 0.5 0.5 )
( 0.5 0.5 )))
((( 0.5 0.5 )
( 0.5 0.5 ))
(( 0.5 0.5 )
( 0.5 0.5 ))))))
(((((( 0.5 0.5 )
( 0.5 0.5 ))
(( 0.5 0.5 )
( 0.5 0.5 )))
((( 0.5 0.5 )
( 0.5 0.5 ))
(( 0.5 0.5 )
( 0.5 0.5 ))))
(((( 0.5 0.5 )
( 0.5 0.5 ))
(( 0.5 0.5 )
( 0.5 0.5 )))
((( 0.5 0.5 )
( 0.5 0.5 ))
(( 0.5 0.5 )
( 0.5 0.5 )))))
((((( 0.5 0.5 )
( 0.5 0.5 ))
(( 0.5 0.5 )
( 0.5 0.5 )))
((( 0.5 0.5 )
( 0.5 0.5 ))
(( 0.5 0.5 )
( 0.5 0.5 ))))
(((( 0.5 0.5 )
( 0.5 0.5 ))
(( 0.5 0.5 )
( 0.5 0.5 )))
((( 0.5 0.5 )
( 0.5 0.5 ))
(( 0.5 0.5 )
( 0.5 0.5 )))))));
}

potential (pretexting_via_delivery_person | suspicious_conversation_visit suspicious_conversasion_phone_message suspicious_conversasion_phone_call)
{
 data = (((( 0.5 0.5 )
( 0.5 0.5 ))
(( 0.5 0.5 )
( 0.5 0.5 )))
((( 0.5 0.5 )
( 0.5 0.5 ))
(( 0.5 0.5 )
( 0.5 0.5 ))));
}

potential (pretexting_via_phone | credentials_theft suspicious_conversasion_phone_message suspicious_conversasion_phone_call)
{
 data = (((( 0.5 0.5 )
( 0.5 0.5 ))
(( 0.5 0.5 )
( 0.5 0.5 )))
((( 0.5 0.5 )
( 0.5 0.5 ))
(( 0.5 0.5 )
( 0.5 0.5 ))));
}

potential (influence_perception_of_reciprocation | credentials_theft pop_up_windows ad_click suspicious_conversasion_email suspicious_conversasion_phone_message suspicious_conversasion_phone_call)
{
 data = ((((((( 0.5 0.5 )
( 0.5 0.5 ))
(( 0.5 0.5 )
( 0.5 0.5 )))
((( 0.5 0.5 )
( 0.5 0.5 ))
(( 0.5 0.5 )
( 0.5 0.5 ))))
(((( 0.5 0.5 )
( 0.5 0.5 ))
(( 0.5 0.5 )
( 0.5 0.5 )))
((( 0.5 0.5 )
( 0.5 0.5 ))
(( 0.5 0.5 )
( 0.5 0.5 )))))
((((( 0.5 0.5 )
( 0.5 0.5 ))
(( 0.5 0.5 )
( 0.5 0.5 )))
((( 0.5 0.5 )
( 0.5 0.5 ))
(( 0.5 0.5 )
( 0.5 0.5 ))))
(((( 0.5 0.5 )
( 0.5 0.5 ))
(( 0.5 0.5 )
( 0.5 0.5 )))
((( 0.5 0.5 )
( 0.5 0.5 ))
(( 0.5 0.5 )
( 0.5 0.5 ))))))
(((((( 0.5 0.5 )
( 0.5 0.5 ))
(( 0.5 0.5 )
( 0.5 0.5 )))
((( 0.5 0.5 )
( 0.5 0.5 ))
(( 0.5 0.5 )
( 0.5 0.5 ))))
(((( 0.5 0.5 )
( 0.5 0.5 ))
(( 0.5 0.5 )
( 0.5 0.5 )))
((( 0.5 0.5 )
( 0.5 0.5 ))
(( 0.5 0.5 )
( 0.5 0.5 )))))
((((( 0.5 0.5 )
( 0.5 0.5 ))
(( 0.5 0.5 )
( 0.5 0.5 )))
((( 0.5 0.5 )
( 0.5 0.5 ))
(( 0.5 0.5 )
( 0.5 0.5 ))))
(((( 0.5 0.5 )
( 0.5 0.5 ))
(( 0.5 0.5 )
( 0.5 0.5 )))
((( 0.5 0.5 )
( 0.5 0.5 ))
(( 0.5 0.5 )
( 0.5 0.5 )))))));
}

potential (influence_perception_of_scarcity | credentials_theft pop_up_windows ad_click suspicious_conversasion_email suspicious_conversasion_phone_message suspicious_conversasion_phone_call)
{
 data = ((((((( 0.5 0.5 )
( 0.5 0.5 ))
(( 0.5 0.5 )
( 0.5 0.5 )))
((( 0.5 0.5 )
( 0.5 0.5 ))
(( 0.5 0.5 )
( 0.5 0.5 ))))
(((( 0.5 0.5 )
( 0.5 0.5 ))
(( 0.5 0.5 )
( 0.5 0.5 )))
((( 0.5 0.5 )
( 0.5 0.5 ))
(( 0.5 0.5 )
( 0.5 0.5 )))))
((((( 0.5 0.5 )
( 0.5 0.5 ))
(( 0.5 0.5 )
( 0.5 0.5 )))
((( 0.5 0.5 )
( 0.5 0.5 ))
(( 0.5 0.5 )
( 0.5 0.5 ))))
(((( 0.5 0.5 )
( 0.5 0.5 ))
(( 0.5 0.5 )
( 0.5 0.5 )))
((( 0.5 0.5 )
( 0.5 0.5 ))
(( 0.5 0.5 )
( 0.5 0.5 ))))))
(((((( 0.5 0.5 )
( 0.5 0.5 ))
(( 0.5 0.5 )
( 0.5 0.5 )))
((( 0.5 0.5 )
( 0.5 0.5 ))
(( 0.5 0.5 )
( 0.5 0.5 ))))
(((( 0.5 0.5 )
( 0.5 0.5 ))
(( 0.5 0.5 )
( 0.5 0.5 )))
((( 0.5 0.5 )
( 0.5 0.5 ))
(( 0.5 0.5 )
( 0.5 0.5 )))))
((((( 0.5 0.5 )
( 0.5 0.5 ))
(( 0.5 0.5 )
( 0.5 0.5 )))
((( 0.5 0.5 )
( 0.5 0.5 ))
(( 0.5 0.5 )
( 0.5 0.5 ))))
(((( 0.5 0.5 )
( 0.5 0.5 ))
(( 0.5 0.5 )
( 0.5 0.5 )))
((( 0.5 0.5 )
( 0.5 0.5 ))
(( 0.5 0.5 )
( 0.5 0.5 )))))));
}

potential (influence_perception_of_authority | credentials_theft pop_up_windows ad_click suspicious_conversasion_email suspicious_conversasion_phone_call suspicious_conversasion_phone_message)
{
 data = ((((((( 0.5 0.5 )
( 0.5 0.5 ))
(( 0.5 0.5 )
( 0.5 0.5 )))
((( 0.5 0.5 )
( 0.5 0.5 ))
(( 0.5 0.5 )
( 0.5 0.5 ))))
(((( 0.5 0.5 )
( 0.5 0.5 ))
(( 0.5 0.5 )
( 0.5 0.5 )))
((( 0.5 0.5 )
( 0.5 0.5 ))
(( 0.5 0.5 )
( 0.5 0.5 )))))
((((( 0.5 0.5 )
( 0.5 0.5 ))
(( 0.5 0.5 )
( 0.5 0.5 )))
((( 0.5 0.5 )
( 0.5 0.5 ))
(( 0.5 0.5 )
( 0.5 0.5 ))))
(((( 0.5 0.5 )
( 0.5 0.5 ))
(( 0.5 0.5 )
( 0.5 0.5 )))
((( 0.5 0.5 )
( 0.5 0.5 ))
(( 0.5 0.5 )
( 0.5 0.5 ))))))
(((((( 0.5 0.5 )
( 0.5 0.5 ))
(( 0.5 0.5 )
( 0.5 0.5 )))
((( 0.5 0.5 )
( 0.5 0.5 ))
(( 0.5 0.5 )
( 0.5 0.5 ))))
(((( 0.5 0.5 )
( 0.5 0.5 ))
(( 0.5 0.5 )
( 0.5 0.5 )))
((( 0.5 0.5 )
( 0.5 0.5 ))
(( 0.5 0.5 )
( 0.5 0.5 )))))
((((( 0.5 0.5 )
( 0.5 0.5 ))
(( 0.5 0.5 )
( 0.5 0.5 )))
((( 0.5 0.5 )
( 0.5 0.5 ))
(( 0.5 0.5 )
( 0.5 0.5 ))))
(((( 0.5 0.5 )
( 0.5 0.5 ))
(( 0.5 0.5 )
( 0.5 0.5 )))
((( 0.5 0.5 )
( 0.5 0.5 ))
(( 0.5 0.5 )
( 0.5 0.5 )))))));
}

potential (influence_perception_of_liking | credentials_re_entering suspicious_conversation_visit suspicious_conversasion_email suspicious_conversasion_phone_call suspicious_conversasion_phone_message)
{
 data = (((((( 0.5 0.5 )
( 0.5 0.5 ))
(( 0.5 0.5 )
( 0.5 0.5 )))
((( 0.5 0.5 )
( 0.5 0.5 ))
(( 0.5 0.5 )
( 0.5 0.5 ))))
(((( 0.5 0.5 )
( 0.5 0.5 ))
(( 0.5 0.5 )
( 0.5 0.5 )))
((( 0.5 0.5 )
( 0.5 0.5 ))
(( 0.5 0.5 )
( 0.5 0.5 )))))
((((( 0.5 0.5 )
( 0.5 0.5 ))
(( 0.5 0.5 )
( 0.5 0.5 )))
((( 0.5 0.5 )
( 0.5 0.5 ))
(( 0.5 0.5 )
( 0.5 0.5 ))))
(((( 0.5 0.5 )
( 0.5 0.5 ))
(( 0.5 0.5 )
( 0.5 0.5 )))
((( 0.5 0.5 )
( 0.5 0.5 ))
(( 0.5 0.5 )
( 0.5 0.5 ))))));
}

potential (influence_perception_of_concensus_or_social_proof | credentials_theft pop_up_windows ad_click suspicious_conversasion_email suspicious_conversasion_phone_message suspicious_conversasion_phone_call)
{
 data = ((((((( 0.5 0.5 )
( 0.5 0.5 ))
(( 0.5 0.5 )
( 0.5 0.5 )))
((( 0.5 0.5 )
( 0.5 0.5 ))
(( 0.5 0.5 )
( 0.5 0.5 ))))
(((( 0.5 0.5 )
( 0.5 0.5 ))
(( 0.5 0.5 )
( 0.5 0.5 )))
((( 0.5 0.5 )
( 0.5 0.5 ))
(( 0.5 0.5 )
( 0.5 0.5 )))))
((((( 0.5 0.5 )
( 0.5 0.5 ))
(( 0.5 0.5 )
( 0.5 0.5 )))
((( 0.5 0.5 )
( 0.5 0.5 ))
(( 0.5 0.5 )
( 0.5 0.5 ))))
(((( 0.5 0.5 )
( 0.5 0.5 ))
(( 0.5 0.5 )
( 0.5 0.5 )))
((( 0.5 0.5 )
( 0.5 0.5 ))
(( 0.5 0.5 )
( 0.5 0.5 ))))))
(((((( 0.5 0.5 )
( 0.5 0.5 ))
(( 0.5 0.5 )
( 0.5 0.5 )))
((( 0.5 0.5 )
( 0.5 0.5 ))
(( 0.5 0.5 )
( 0.5 0.5 ))))
(((( 0.5 0.5 )
( 0.5 0.5 ))
(( 0.5 0.5 )
( 0.5 0.5 )))
((( 0.5 0.5 )
( 0.5 0.5 ))
(( 0.5 0.5 )
( 0.5 0.5 )))))
((((( 0.5 0.5 )
( 0.5 0.5 ))
(( 0.5 0.5 )
( 0.5 0.5 )))
((( 0.5 0.5 )
( 0.5 0.5 ))
(( 0.5 0.5 )
( 0.5 0.5 ))))
(((( 0.5 0.5 )
( 0.5 0.5 ))
(( 0.5 0.5 )
( 0.5 0.5 )))
((( 0.5 0.5 )
( 0.5 0.5 ))
(( 0.5 0.5 )
( 0.5 0.5 )))))));
}

potential (target_influence_via_framing | credentials_theft pop_up_windows ad_click suspicious_conversasion_phone_message suspicious_conversasion_phone_call suspicious_conversasion_email)
{
 data = ((((((( 0.5 0.5 )
( 0.5 0.5 ))
(( 0.5 0.5 )
( 0.5 0.5 )))
((( 0.5 0.5 )
( 0.5 0.5 ))
(( 0.5 0.5 )
( 0.5 0.5 ))))
(((( 0.5 0.5 )
( 0.5 0.5 ))
(( 0.5 0.5 )
( 0.5 0.5 )))
((( 0.5 0.5 )
( 0.5 0.5 ))
(( 0.5 0.5 )
( 0.5 0.5 )))))
((((( 0.5 0.5 )
( 0.5 0.5 ))
(( 0.5 0.5 )
( 0.5 0.5 )))
((( 0.5 0.5 )
( 0.5 0.5 ))
(( 0.5 0.5 )
( 0.5 0.5 ))))
(((( 0.5 0.5 )
( 0.5 0.5 ))
(( 0.5 0.5 )
( 0.5 0.5 )))
((( 0.5 0.5 )
( 0.5 0.5 ))
(( 0.5 0.5 )
( 0.5 0.5 ))))))
(((((( 0.5 0.5 )
( 0.5 0.5 ))
(( 0.5 0.5 )
( 0.5 0.5 )))
((( 0.5 0.5 )
( 0.5 0.5 ))
(( 0.5 0.5 )
( 0.5 0.5 ))))
(((( 0.5 0.5 )
( 0.5 0.5 ))
(( 0.5 0.5 )
( 0.5 0.5 )))
((( 0.5 0.5 )
( 0.5 0.5 ))
(( 0.5 0.5 )
( 0.5 0.5 )))))
((((( 0.5 0.5 )
( 0.5 0.5 ))
(( 0.5 0.5 )
( 0.5 0.5 )))
((( 0.5 0.5 )
( 0.5 0.5 ))
(( 0.5 0.5 )
( 0.5 0.5 ))))
(((( 0.5 0.5 )
( 0.5 0.5 ))
(( 0.5 0.5 )
( 0.5 0.5 )))
((( 0.5 0.5 )
( 0.5 0.5 ))
(( 0.5 0.5 )
( 0.5 0.5 )))))));
}

potential (influence_via_modes_of_thinking | credentials_theft suspicious_conversation_visit suspicious_conversasion_phone_message suspicious_conversasion_phone_call)
{
 data = ((((( 0.5 0.5 )
( 0.5 0.5 ))
(( 0.5 0.5 )
( 0.5 0.5 )))
((( 0.5 0.5 )
( 0.5 0.5 ))
(( 0.5 0.5 )
( 0.5 0.5 ))))
(((( 0.5 0.5 )
( 0.5 0.5 ))
(( 0.5 0.5 )
( 0.5 0.5 )))
((( 0.5 0.5 )
( 0.5 0.5 ))
(( 0.5 0.5 )
( 0.5 0.5 )))));
}

potential (target_influence_via_interview_and_interrogation | pop_up_windows ad_click suspicious_conversasion_email suspicious_conversasion_phone_message suspicious_conversasion_phone_call)
{
 data = (((((( 0.5 0.5 )
( 0.5 0.5 ))
(( 0.5 0.5 )
( 0.5 0.5 )))
((( 0.5 0.5 )
( 0.5 0.5 ))
(( 0.5 0.5 )
( 0.5 0.5 ))))
(((( 0.5 0.5 )
( 0.5 0.5 ))
(( 0.5 0.5 )
( 0.5 0.5 )))
((( 0.5 0.5 )
( 0.5 0.5 ))
(( 0.5 0.5 )
( 0.5 0.5 )))))
((((( 0.5 0.5 )
( 0.5 0.5 ))
(( 0.5 0.5 )
( 0.5 0.5 )))
((( 0.5 0.5 )
( 0.5 0.5 ))
(( 0.5 0.5 )
( 0.5 0.5 ))))
(((( 0.5 0.5 )
( 0.5 0.5 ))
(( 0.5 0.5 )
( 0.5 0.5 )))
((( 0.5 0.5 )
( 0.5 0.5 ))
(( 0.5 0.5 )
( 0.5 0.5 ))))));
}

potential (suspicious_conversasion_phone_call)
{
 data = ( 0.5 0.5 );
}

potential (suspicious_conversasion_phone_message)
{
 data = ( 0.5 0.5 );
}

potential (ad_click)
{
 data = ( 0.5 0.5 );
}

potential (pop_up_windows)
{
 data = ( 0.5 0.5 );
}

potential (credentials_theft)
{
 data = ( 0.5 0.5 );
}

potential (credentials_re_entering)
{
 data = ( 0.5 0.5 );
}

potential (services_fail)
{
 data = ( 0.5 0.5 );
}

potential (suspicious_code_modifications)
{
 data = ( 0.5 0.5 );
}

potential (suspicious_conversation_visit)
{
 data = ( 0.5 0.5 );
}

potential (suspicious_link)
{
 data = ( 0.5 0.5 );
}

potential (frequent_spams)
{
 data = ( 0.5 0.5 );
}

